digraph Tree {
node [shape=box] ;
0 [label="X[5] <= 0.5\nmse = 10.228\nsamples = 519\nvalue = 11.877"] ;
1 [label="X[50] <= 0.5\nmse = 7.641\nsamples = 440\nvalue = 12.493"] ;
0 -> 1 [labeldistance=2.5, labelangle=45, headlabel="True"] ;
2 [label="X[9] <= 2.5\nmse = 7.425\nsamples = 408\nvalue = 12.701"] ;
1 -> 2 ;
3 [label="X[1] <= 3.5\nmse = 6.796\nsamples = 366\nvalue = 12.899"] ;
2 -> 3 ;
4 [label="X[4] <= 1.5\nmse = 6.063\nsamples = 246\nvalue = 12.52"] ;
3 -> 4 ;
5 [label="X[35] <= 0.5\nmse = 6.087\nsamples = 57\nvalue = 11.351"] ;
4 -> 5 ;
6 [label="X[10] <= 2.5\nmse = 4.077\nsamples = 51\nvalue = 11.627"] ;
5 -> 6 ;
7 [label="X[43] <= 0.5\nmse = 4.168\nsamples = 28\nvalue = 12.214"] ;
6 -> 7 ;
8 [label="mse = 3.077\nsamples = 13\nvalue = 13.0"] ;
7 -> 8 ;
9 [label="mse = 4.116\nsamples = 15\nvalue = 11.533"] ;
7 -> 9 ;
10 [label="X[7] <= 1.5\nmse = 3.036\nsamples = 23\nvalue = 10.913"] ;
6 -> 10 ;
11 [label="mse = 0.25\nsamples = 2\nvalue = 7.5"] ;
10 -> 11 ;
12 [label="X[34] <= 0.5\nmse = 2.086\nsamples = 21\nvalue = 11.238"] ;
10 -> 12 ;
13 [label="mse = 1.204\nsamples = 17\nvalue = 10.824"] ;
12 -> 13 ;
14 [label="mse = 2.0\nsamples = 4\nvalue = 13.0"] ;
12 -> 14 ;
15 [label="mse = 17.0\nsamples = 6\nvalue = 9.0"] ;
5 -> 15 ;
16 [label="X[0] <= 16.5\nmse = 5.518\nsamples = 189\nvalue = 12.873"] ;
4 -> 16 ;
17 [label="X[12] <= 1.5\nmse = 3.898\nsamples = 89\nvalue = 12.034"] ;
16 -> 17 ;
18 [label="X[8] <= 2.5\nmse = 4.233\nsamples = 41\nvalue = 12.756"] ;
17 -> 18 ;
19 [label="mse = 4.408\nsamples = 14\nvalue = 14.143"] ;
18 -> 19 ;
20 [label="X[49] <= 0.5\nmse = 2.628\nsamples = 27\nvalue = 12.037"] ;
18 -> 20 ;
21 [label="mse = 0.56\nsamples = 5\nvalue = 13.8"] ;
20 -> 21 ;
22 [label="X[45] <= 0.5\nmse = 2.231\nsamples = 22\nvalue = 11.636"] ;
20 -> 22 ;
23 [label="X[0] <= 15.5\nmse = 1.678\nsamples = 21\nvalue = 11.81"] ;
22 -> 23 ;
24 [label="mse = 0.188\nsamples = 4\nvalue = 10.75"] ;
23 -> 24 ;
25 [label="mse = 1.702\nsamples = 17\nvalue = 12.059"] ;
23 -> 25 ;
26 [label="mse = 0.0\nsamples = 1\nvalue = 8.0"] ;
22 -> 26 ;
27 [label="X[8] <= 1.5\nmse = 2.785\nsamples = 48\nvalue = 11.417"] ;
17 -> 27 ;
28 [label="mse = 0.0\nsamples = 1\nvalue = 8.0"] ;
27 -> 28 ;
29 [label="X[1] <= 1.5\nmse = 2.59\nsamples = 47\nvalue = 11.489"] ;
27 -> 29 ;
30 [label="mse = 2.64\nsamples = 10\nvalue = 10.6"] ;
29 -> 30 ;
31 [label="X[12] <= 9.0\nmse = 2.305\nsamples = 37\nvalue = 11.73"] ;
29 -> 31 ;
32 [label="X[12] <= 5.0\nmse = 2.264\nsamples = 33\nvalue = 11.909"] ;
31 -> 32 ;
33 [label="X[49] <= 0.5\nmse = 2.013\nsamples = 26\nvalue = 11.577"] ;
32 -> 33 ;
34 [label="mse = 0.667\nsamples = 3\nvalue = 10.0"] ;
33 -> 34 ;
35 [label="X[11] <= 1.5\nmse = 1.822\nsamples = 23\nvalue = 11.783"] ;
33 -> 35 ;
36 [label="mse = 2.25\nsamples = 2\nvalue = 13.5"] ;
35 -> 36 ;
37 [label="X[44] <= 0.5\nmse = 1.474\nsamples = 21\nvalue = 11.619"] ;
35 -> 37 ;
38 [label="mse = 0.0\nsamples = 2\nvalue = 13.0"] ;
37 -> 38 ;
39 [label="mse = 1.407\nsamples = 19\nvalue = 11.474"] ;
37 -> 39 ;
40 [label="mse = 1.265\nsamples = 7\nvalue = 13.143"] ;
32 -> 40 ;
41 [label="mse = 0.188\nsamples = 4\nvalue = 10.25"] ;
31 -> 41 ;
42 [label="X[36] <= 0.5\nmse = 5.776\nsamples = 100\nvalue = 13.62"] ;
16 -> 42 ;
43 [label="X[11] <= 1.5\nmse = 5.168\nsamples = 71\nvalue = 13.239"] ;
42 -> 43 ;
44 [label="mse = 2.576\nsamples = 12\nvalue = 14.917"] ;
43 -> 44 ;
45 [label="X[4] <= 2.5\nmse = 5.007\nsamples = 59\nvalue = 12.898"] ;
43 -> 45 ;
46 [label="X[10] <= 3.5\nmse = 4.079\nsamples = 37\nvalue = 12.405"] ;
45 -> 46 ;
47 [label="X[15] <= 0.5\nmse = 3.561\nsamples = 31\nvalue = 12.71"] ;
46 -> 47 ;
48 [label="mse = 0.889\nsamples = 3\nvalue = 15.333"] ;
47 -> 48 ;
49 [label="X[14] <= 0.5\nmse = 3.031\nsamples = 28\nvalue = 12.429"] ;
47 -> 49 ;
50 [label="X[25] <= 0.5\nmse = 2.748\nsamples = 20\nvalue = 12.95"] ;
49 -> 50 ;
51 [label="mse = 2.876\nsamples = 11\nvalue = 12.182"] ;
50 -> 51 ;
52 [label="mse = 0.988\nsamples = 9\nvalue = 13.889"] ;
50 -> 52 ;
53 [label="mse = 1.359\nsamples = 8\nvalue = 11.125"] ;
49 -> 53 ;
54 [label="mse = 3.806\nsamples = 6\nvalue = 10.833"] ;
46 -> 54 ;
55 [label="X[23] <= 0.5\nmse = 5.471\nsamples = 22\nvalue = 13.727"] ;
45 -> 55 ;
56 [label="mse = 4.265\nsamples = 14\nvalue = 12.857"] ;
55 -> 56 ;
57 [label="mse = 3.938\nsamples = 8\nvalue = 15.25"] ;
55 -> 57 ;
58 [label="X[49] <= 0.5\nmse = 6.04\nsamples = 29\nvalue = 14.552"] ;
42 -> 58 ;
59 [label="mse = 3.6\nsamples = 5\nvalue = 12.0"] ;
58 -> 59 ;
60 [label="X[8] <= 2.5\nmse = 4.91\nsamples = 24\nvalue = 15.083"] ;
58 -> 60 ;
61 [label="mse = 2.889\nsamples = 6\nvalue = 16.667"] ;
60 -> 61 ;
62 [label="mse = 4.469\nsamples = 18\nvalue = 14.556"] ;
60 -> 62 ;
63 [label="X[2] <= 1.5\nmse = 7.403\nsamples = 120\nvalue = 13.675"] ;
3 -> 63 ;
64 [label="mse = 2.64\nsamples = 5\nvalue = 10.6"] ;
63 -> 64 ;
65 [label="X[40] <= 0.5\nmse = 7.181\nsamples = 115\nvalue = 13.809"] ;
63 -> 65 ;
66 [label="mse = 16.926\nsamples = 11\nvalue = 11.727"] ;
65 -> 66 ;
67 [label="X[10] <= 1.5\nmse = 5.643\nsamples = 104\nvalue = 14.029"] ;
65 -> 67 ;
68 [label="X[7] <= 2.5\nmse = 4.744\nsamples = 40\nvalue = 14.825"] ;
67 -> 68 ;
69 [label="mse = 2.0\nsamples = 11\nvalue = 16.0"] ;
68 -> 69 ;
70 [label="X[20] <= 0.5\nmse = 5.063\nsamples = 29\nvalue = 14.379"] ;
68 -> 70 ;
71 [label="mse = 5.269\nsamples = 19\nvalue = 13.684"] ;
70 -> 71 ;
72 [label="mse = 2.01\nsamples = 10\nvalue = 15.7"] ;
70 -> 72 ;
73 [label="X[11] <= 2.5\nmse = 5.562\nsamples = 64\nvalue = 13.531"] ;
67 -> 73 ;
74 [label="mse = 4.875\nsamples = 19\nvalue = 14.579"] ;
73 -> 74 ;
75 [label="X[4] <= 2.5\nmse = 5.192\nsamples = 45\nvalue = 13.089"] ;
73 -> 75 ;
76 [label="X[2] <= 2.5\nmse = 4.911\nsamples = 33\nvalue = 12.576"] ;
75 -> 76 ;
77 [label="mse = 3.688\nsamples = 4\nvalue = 15.25"] ;
76 -> 77 ;
78 [label="X[12] <= 11.0\nmse = 3.957\nsamples = 29\nvalue = 12.207"] ;
76 -> 78 ;
79 [label="X[43] <= 0.5\nmse = 3.249\nsamples = 28\nvalue = 12.036"] ;
78 -> 79 ;
80 [label="mse = 2.595\nsamples = 11\nvalue = 13.364"] ;
79 -> 80 ;
81 [label="mse = 1.792\nsamples = 17\nvalue = 11.176"] ;
79 -> 81 ;
82 [label="mse = 0.0\nsamples = 1\nvalue = 17.0"] ;
78 -> 82 ;
83 [label="mse = 3.25\nsamples = 12\nvalue = 14.5"] ;
75 -> 83 ;
84 [label="X[32] <= 0.5\nmse = 9.595\nsamples = 42\nvalue = 10.976"] ;
2 -> 84 ;
85 [label="X[53] <= 0.5\nmse = 6.974\nsamples = 40\nvalue = 11.225"] ;
84 -> 85 ;
86 [label="mse = 15.889\nsamples = 6\nvalue = 8.667"] ;
85 -> 86 ;
87 [label="X[26] <= 0.5\nmse = 4.042\nsamples = 34\nvalue = 11.676"] ;
85 -> 87 ;
88 [label="X[42] <= 0.5\nmse = 3.617\nsamples = 26\nvalue = 12.192"] ;
87 -> 88 ;
89 [label="mse = 2.116\nsamples = 15\nvalue = 11.533"] ;
88 -> 89 ;
90 [label="mse = 4.264\nsamples = 11\nvalue = 13.091"] ;
88 -> 90 ;
91 [label="mse = 1.75\nsamples = 8\nvalue = 10.0"] ;
87 -> 91 ;
92 [label="mse = 36.0\nsamples = 2\nvalue = 6.0"] ;
84 -> 92 ;
93 [label="X[2] <= 3.5\nmse = 2.819\nsamples = 32\nvalue = 9.844"] ;
1 -> 93 ;
94 [label="X[48] <= 0.5\nmse = 2.366\nsamples = 30\nvalue = 10.033"] ;
93 -> 94 ;
95 [label="X[20] <= 0.5\nmse = 1.957\nsamples = 24\nvalue = 9.708"] ;
94 -> 95 ;
96 [label="mse = 1.777\nsamples = 16\nvalue = 10.188"] ;
95 -> 96 ;
97 [label="mse = 0.938\nsamples = 8\nvalue = 8.75"] ;
95 -> 97 ;
98 [label="mse = 1.889\nsamples = 6\nvalue = 11.333"] ;
94 -> 98 ;
99 [label="mse = 1.0\nsamples = 2\nvalue = 7.0"] ;
93 -> 99 ;
100 [label="X[12] <= 0.5\nmse = 10.728\nsamples = 79\nvalue = 8.443"] ;
0 -> 100 [labeldistance=2.5, labelangle=-45, headlabel="False"] ;
101 [label="X[54] <= 0.5\nmse = 25.326\nsamples = 24\nvalue = 6.917"] ;
100 -> 101 ;
102 [label="mse = 21.802\nsamples = 9\nvalue = 3.444"] ;
101 -> 102 ;
103 [label="mse = 15.867\nsamples = 15\nvalue = 9.0"] ;
101 -> 103 ;
104 [label="X[32] <= 0.5\nmse = 2.897\nsamples = 55\nvalue = 9.109"] ;
100 -> 104 ;
105 [label="X[3] <= 1.5\nmse = 2.055\nsamples = 54\nvalue = 8.981"] ;
104 -> 105 ;
106 [label="X[8] <= 4.5\nmse = 1.823\nsamples = 21\nvalue = 8.286"] ;
105 -> 106 ;
107 [label="mse = 1.062\nsamples = 16\nvalue = 8.75"] ;
106 -> 107 ;
108 [label="mse = 1.36\nsamples = 5\nvalue = 6.8"] ;
106 -> 108 ;
109 [label="X[10] <= 2.5\nmse = 1.699\nsamples = 33\nvalue = 9.424"] ;
105 -> 109 ;
110 [label="mse = 1.527\nsamples = 16\nvalue = 8.812"] ;
109 -> 110 ;
111 [label="mse = 1.176\nsamples = 17\nvalue = 10.0"] ;
109 -> 111 ;
112 [label="mse = 0.0\nsamples = 1\nvalue = 16.0"] ;
104 -> 112 ;
}
